digraph Tree {
node [shape=box, style="filled, rounded", color="black", fontname=helvetica] ;
edge [fontname=helvetica] ;
0 [label="petal_length <= 0.69\nentropy = 0.89\nsamples = 58\nvalue = [[71, 19]\n[57, 33]\n[52, 38]]", fillcolor="#ffffff"] ;
1 [label="petal_width <= -0.66\nentropy = 0.78\nsamples = 41\nvalue = [[38, 19]\n[24, 33]\n[52, 5]]", fillcolor="#fcefe5"] ;
0 -> 1 [labeldistance=2.5, labelangle=45, headlabel="True"] ;
2 [label="entropy = 0.0\nsamples = 16\nvalue = [[0, 19]\n[19, 0]\n[19, 0]]", fillcolor="#e58139"] ;
1 -> 2 ;
3 [label="petal_length <= 0.53\nentropy = 0.37\nsamples = 25\nvalue = [[38, 0]\n[5, 33]\n[33, 5]]", fillcolor="#f0b68c"] ;
1 -> 3 ;
4 [label="entropy = 0.0\nsamples = 17\nvalue = [[26, 0]\n[0, 26]\n[26, 0]]", fillcolor="#e58139"] ;
3 -> 4 ;
5 [label="sepal_length <= 0.45\nentropy = 0.65\nsamples = 8\nvalue = [[12, 0]\n[5, 7]\n[7, 5]]", fillcolor="#f8ddca"] ;
3 -> 5 ;
6 [label="entropy = 0.0\nsamples = 4\nvalue = [[5, 0]\n[5, 0]\n[0, 5]]", fillcolor="#e58139"] ;
5 -> 6 ;
7 [label="entropy = 0.0\nsamples = 4\nvalue = [[7, 0]\n[0, 7]\n[7, 0]]", fillcolor="#e58139"] ;
5 -> 7 ;
8 [label="entropy = 0.0\nsamples = 17\nvalue = [[33, 0]\n[33, 0]\n[0, 33]]", fillcolor="#e58139"] ;
0 -> 8 [labeldistance=2.5, labelangle=-45, headlabel="False"] ;
}